digraph Tree {
node [shape=box, style="filled, rounded", color="black", fontname="helvetica"] ;
edge [fontname="helvetica"] ;
0 [label="sepal length (cm) <= 5.55\ngini = 0.65\nsamples = 93\nvalue = [32, 59, 59]\nclass = versicolor", fillcolor="#ffffff"] ;
1 [label="petal length (cm) <= 2.6\ngini = 0.39\nsamples = 28\nvalue = [28, 7, 2]\nclass = setosa", fillcolor="#eda774"] ;
0 -> 1 [labeldistance=2.5, labelangle=45, headlabel="True"] ;
2 [label="gini = 0.0\nsamples = 22\nvalue = [28, 0, 0]\nclass = setosa", fillcolor="#e58139"] ;
1 -> 2 ;
3 [label="petal length (cm) <= 4.25\ngini = 0.35\nsamples = 6\nvalue = [0, 7, 2]\nclass = versicolor", fillcolor="#72eca5"] ;
1 -> 3 ;
4 [label="gini = 0.0\nsamples = 5\nvalue = [0, 7, 0]\nclass = versicolor", fillcolor="#39e581"] ;
3 -> 4 ;
5 [label="gini = 0.0\nsamples = 1\nvalue = [0, 0, 2]\nclass = virginica", fillcolor="#8139e5"] ;
3 -> 5 ;
6 [label="petal length (cm) <= 4.75\ngini = 0.53\nsamples = 65\nvalue = [4, 52, 57]\nclass = virginica", fillcolor="#f5effd"] ;
0 -> 6 [labeldistance=2.5, labelangle=-45, headlabel="False"] ;
7 [label="petal width (cm) <= 0.7\ngini = 0.15\nsamples = 30\nvalue = [4, 45, 0]\nclass = versicolor", fillcolor="#4be78c"] ;
6 -> 7 ;
8 [label="gini = 0.0\nsamples = 3\nvalue = [4, 0, 0]\nclass = setosa", fillcolor="#e58139"] ;
7 -> 8 ;
9 [label="gini = 0.0\nsamples = 27\nvalue = [0, 45, 0]\nclass = versicolor", fillcolor="#39e581"] ;
7 -> 9 ;
10 [label="petal width (cm) <= 1.75\ngini = 0.19\nsamples = 35\nvalue = [0, 7, 57]\nclass = virginica", fillcolor="#9051e8"] ;
6 -> 10 ;
11 [label="sepal width (cm) <= 2.55\ngini = 0.49\nsamples = 6\nvalue = [0, 4, 3]\nclass = versicolor", fillcolor="#cef8e0"] ;
10 -> 11 ;
12 [label="gini = 0.0\nsamples = 1\nvalue = [0, 2, 0]\nclass = versicolor", fillcolor="#39e581"] ;
11 -> 12 ;
13 [label="sepal width (cm) <= 2.9\ngini = 0.48\nsamples = 5\nvalue = [0, 2, 3]\nclass = virginica", fillcolor="#d5bdf6"] ;
11 -> 13 ;
14 [label="gini = 0.0\nsamples = 2\nvalue = [0, 0, 2]\nclass = virginica", fillcolor="#8139e5"] ;
13 -> 14 ;
15 [label="petal length (cm) <= 5.4\ngini = 0.44\nsamples = 3\nvalue = [0, 2, 1]\nclass = versicolor", fillcolor="#9cf2c0"] ;
13 -> 15 ;
16 [label="gini = 0.0\nsamples = 2\nvalue = [0, 2, 0]\nclass = versicolor", fillcolor="#39e581"] ;
15 -> 16 ;
17 [label="gini = 0.0\nsamples = 1\nvalue = [0, 0, 1]\nclass = virginica", fillcolor="#8139e5"] ;
15 -> 17 ;
18 [label="sepal length (cm) <= 5.95\ngini = 0.1\nsamples = 29\nvalue = [0, 3, 54]\nclass = virginica", fillcolor="#8844e6"] ;
10 -> 18 ;
19 [label="sepal width (cm) <= 3.1\ngini = 0.49\nsamples = 4\nvalue = [0, 3, 4]\nclass = virginica", fillcolor="#e0cef8"] ;
18 -> 19 ;
20 [label="gini = 0.0\nsamples = 3\nvalue = [0, 0, 4]\nclass = virginica", fillcolor="#8139e5"] ;
19 -> 20 ;
21 [label="gini = 0.0\nsamples = 1\nvalue = [0, 3, 0]\nclass = versicolor", fillcolor="#39e581"] ;
19 -> 21 ;
22 [label="gini = 0.0\nsamples = 25\nvalue = [0, 0, 50]\nclass = virginica", fillcolor="#8139e5"] ;
18 -> 22 ;
}